Language model created by QuickLM on Sun Sep 17 15:19:11 EDT 2017
Copyright (c) 1996-2010 Carnegie Mellon University and Alexander I. Rudnicky

The model is in standard ARPA format, designed by Doug Paul while he was at MITRE.

The code that was used to produce this language model is available in Open Source.
Please visit http://www.speech.cs.cmu.edu/tools/ for more information

The (fixed) discount mass is 0.5. The backoffs are computed using the ratio method.
This model based on a corpus of 4 sentences and 6 words

\data\
ngram 1=6
ngram 2=8
ngram 3=6

\1-grams:
-0.8451 </s> -0.3010
-0.8451 <s> -0.2341
-1.4472 JUDY -0.2341
-0.9700 LIGHT -0.1963
-1.4472 OFF -0.2341
-1.4472 ON -0.2341

\2-grams:
-0.9031 <s> JUDY 0.0000
-0.4260 <s> LIGHT 0.0000
-0.3010 JUDY </s> -0.3010
-0.7782 LIGHT </s> -0.3010
-0.7782 LIGHT OFF 0.0000
-0.7782 LIGHT ON 0.0000
-0.3010 OFF </s> -0.3010
-0.3010 ON </s> -0.3010

\3-grams:
-0.3010 <s> JUDY </s>
-0.7782 <s> LIGHT </s>
-0.7782 <s> LIGHT OFF
-0.7782 <s> LIGHT ON
-0.3010 LIGHT OFF </s>
-0.3010 LIGHT ON </s>

\end\
